digraph Tree {
node [shape=box, style="filled", color="black", fontname="helvetica"] ;
edge [fontname="helvetica"] ;
0 [label="genero_mujer <= 0.5\ngini = 0.473\nsamples = 891\nvalue = [549, 342]\nclass = 0", fillcolor="#f5cfb4"] ;
1 [label="edad <= 6.5\ngini = 0.306\nsamples = 577\nvalue = [468, 109]\nclass = 0", fillcolor="#eb9e67"] ;
0 -> 1 [labeldistance=2.5, labelangle=45, headlabel="True"] ;
2 [label="n_hermanos_esposos <= 2.5\ngini = 0.444\nsamples = 24\nvalue = [8, 16]\nclass = 1", fillcolor="#9ccef2"] ;
1 -> 2 ;
3 [label="gini = 0.0\nsamples = 15\nvalue = [0, 15]\nclass = 1", fillcolor="#399de5"] ;
2 -> 3 ;
4 [label="n_hijos_padres <= 1.5\ngini = 0.198\nsamples = 9\nvalue = [8, 1]\nclass = 0", fillcolor="#e89152"] ;
2 -> 4 ;
5 [label="gini = 0.0\nsamples = 5\nvalue = [5, 0]\nclass = 0", fillcolor="#e58139"] ;
4 -> 5 ;
6 [label="edad <= 3.5\ngini = 0.375\nsamples = 4\nvalue = [3, 1]\nclass = 0", fillcolor="#eeab7b"] ;
4 -> 6 ;
7 [label="edad <= 2.0\ngini = 0.5\nsamples = 2\nvalue = [1, 1]\nclass = 0", fillcolor="#ffffff"] ;
6 -> 7 ;
8 [label="gini = 0.0\nsamples = 1\nvalue = [1, 0]\nclass = 0", fillcolor="#e58139"] ;
7 -> 8 ;
9 [label="gini = 0.0\nsamples = 1\nvalue = [0, 1]\nclass = 1", fillcolor="#399de5"] ;
7 -> 9 ;
10 [label="gini = 0.0\nsamples = 2\nvalue = [2, 0]\nclass = 0", fillcolor="#e58139"] ;
6 -> 10 ;
11 [label="clase_billete <= 1.5\ngini = 0.28\nsamples = 553\nvalue = [460, 93]\nclass = 0", fillcolor="#ea9a61"] ;
1 -> 11 ;
12 [label="precio_billete <= 26.144\ngini = 0.46\nsamples = 120\nvalue = [77, 43]\nclass = 0", fillcolor="#f4c7a8"] ;
11 -> 12 ;
13 [label="gini = 0.0\nsamples = 10\nvalue = [10, 0]\nclass = 0", fillcolor="#e58139"] ;
12 -> 13 ;
14 [label="edad <= 53.0\ngini = 0.476\nsamples = 110\nvalue = [67, 43]\nclass = 0", fillcolor="#f6d2b8"] ;
12 -> 14 ;
15 [label="precio_billete <= 27.135\ngini = 0.495\nsamples = 89\nvalue = [49, 40]\nclass = 0", fillcolor="#fae8db"] ;
14 -> 15 ;
16 [label="precio_billete <= 26.469\ngini = 0.26\nsamples = 13\nvalue = [2, 11]\nclass = 1", fillcolor="#5dafea"] ;
15 -> 16 ;
17 [label="gini = 0.0\nsamples = 4\nvalue = [0, 4]\nclass = 1", fillcolor="#399de5"] ;
16 -> 17 ;
18 [label="edad <= 46.5\ngini = 0.346\nsamples = 9\nvalue = [2, 7]\nclass = 1", fillcolor="#72b9ec"] ;
16 -> 18 ;
19 [label="edad <= 40.0\ngini = 0.408\nsamples = 7\nvalue = [2, 5]\nclass = 1", fillcolor="#88c4ef"] ;
18 -> 19 ;
20 [label="edad <= 31.85\ngini = 0.32\nsamples = 5\nvalue = [1, 4]\nclass = 1", fillcolor="#6ab6ec"] ;
19 -> 20 ;
21 [label="edad <= 28.85\ngini = 0.444\nsamples = 3\nvalue = [1, 2]\nclass = 1", fillcolor="#9ccef2"] ;
20 -> 21 ;
22 [label="gini = 0.0\nsamples = 1\nvalue = [0, 1]\nclass = 1", fillcolor="#399de5"] ;
21 -> 22 ;
23 [label="gini = 0.5\nsamples = 2\nvalue = [1, 1]\nclass = 0", fillcolor="#ffffff"] ;
21 -> 23 ;
24 [label="gini = 0.0\nsamples = 2\nvalue = [0, 2]\nclass = 1", fillcolor="#399de5"] ;
20 -> 24 ;
25 [label="gini = 0.5\nsamples = 2\nvalue = [1, 1]\nclass = 0", fillcolor="#ffffff"] ;
19 -> 25 ;
26 [label="gini = 0.0\nsamples = 2\nvalue = [0, 2]\nclass = 1", fillcolor="#399de5"] ;
18 -> 26 ;
27 [label="edad <= 17.5\ngini = 0.472\nsamples = 76\nvalue = [47, 29]\nclass = 0", fillcolor="#f5cfb3"] ;
15 -> 27 ;
28 [label="gini = 0.0\nsamples = 2\nvalue = [0, 2]\nclass = 1", fillcolor="#399de5"] ;
27 -> 28 ;
29 [label="precio_billete <= 387.665\ngini = 0.463\nsamples = 74\nvalue = [47, 27]\nclass = 0", fillcolor="#f4c9ab"] ;
27 -> 29 ;
30 [label="precio_billete <= 134.642\ngini = 0.453\nsamples = 72\nvalue = [47, 25]\nclass = 0", fillcolor="#f3c4a2"] ;
29 -> 30 ;
31 [label="edad <= 27.5\ngini = 0.473\nsamples = 65\nvalue = [40, 25]\nclass = 0", fillcolor="#f5d0b5"] ;
30 -> 31 ;
32 [label="edad <= 24.5\ngini = 0.463\nsamples = 11\nvalue = [4, 7]\nclass = 1", fillcolor="#aad5f4"] ;
31 -> 32 ;
33 [label="n_hijos_padres <= 0.5\ngini = 0.32\nsamples = 5\nvalue = [4, 1]\nclass = 0", fillcolor="#eca06a"] ;
32 -> 33 ;
34 [label="gini = 0.0\nsamples = 3\nvalue = [3, 0]\nclass = 0", fillcolor="#e58139"] ;
33 -> 34 ;
35 [label="precio_billete <= 70.323\ngini = 0.5\nsamples = 2\nvalue = [1, 1]\nclass = 0", fillcolor="#ffffff"] ;
33 -> 35 ;
36 [label="gini = 0.0\nsamples = 1\nvalue = [0, 1]\nclass = 1", fillcolor="#399de5"] ;
35 -> 36 ;
37 [label="gini = 0.0\nsamples = 1\nvalue = [1, 0]\nclass = 0", fillcolor="#e58139"] ;
35 -> 37 ;
38 [label="gini = 0.0\nsamples = 6\nvalue = [0, 6]\nclass = 1", fillcolor="#399de5"] ;
32 -> 38 ;
39 [label="precio_billete <= 115.442\ngini = 0.444\nsamples = 54\nvalue = [36, 18]\nclass = 0", fillcolor="#f2c09c"] ;
31 -> 39 ;
40 [label="precio_billete <= 29.1\ngini = 0.426\nsamples = 52\nvalue = [36, 16]\nclass = 0", fillcolor="#f1b991"] ;
39 -> 40 ;
41 [label="gini = 0.0\nsamples = 5\nvalue = [5, 0]\nclass = 0", fillcolor="#e58139"] ;
40 -> 41 ;
42 [label="precio_billete <= 30.598\ngini = 0.449\nsamples = 47\nvalue = [31, 16]\nclass = 0", fillcolor="#f2c29f"] ;
40 -> 42 ;
43 [label="edad <= 29.35\ngini = 0.408\nsamples = 7\nvalue = [2, 5]\nclass = 1", fillcolor="#88c4ef"] ;
42 -> 43 ;
44 [label="gini = 0.0\nsamples = 1\nvalue = [1, 0]\nclass = 0", fillcolor="#e58139"] ;
43 -> 44 ;
45 [label="n_hijos_padres <= 0.5\ngini = 0.278\nsamples = 6\nvalue = [1, 5]\nclass = 1", fillcolor="#61b1ea"] ;
43 -> 45 ;
46 [label="gini = 0.0\nsamples = 5\nvalue = [0, 5]\nclass = 1", fillcolor="#399de5"] ;
45 -> 46 ;
47 [label="gini = 0.0\nsamples = 1\nvalue = [1, 0]\nclass = 0", fillcolor="#e58139"] ;
45 -> 47 ;
48 [label="n_hermanos_esposos <= 0.5\ngini = 0.399\nsamples = 40\nvalue = [29, 11]\nclass = 0", fillcolor="#efb184"] ;
42 -> 48 ;
49 [label="precio_billete <= 37.0\ngini = 0.266\nsamples = 19\nvalue = [16, 3]\nclass = 0", fillcolor="#ea995e"] ;
48 -> 49 ;
50 [label="edad <= 28.85\ngini = 0.469\nsamples = 8\nvalue = [5, 3]\nclass = 0", fillcolor="#f5cdb0"] ;
49 -> 50 ;
51 [label="gini = 0.0\nsamples = 1\nvalue = [0, 1]\nclass = 1", fillcolor="#399de5"] ;
50 -> 51 ;
52 [label="edad <= 42.5\ngini = 0.408\nsamples = 7\nvalue = [5, 2]\nclass = 0", fillcolor="#efb388"] ;
50 -> 52 ;
53 [label="edad <= 34.85\ngini = 0.48\nsamples = 5\nvalue = [3, 2]\nclass = 0", fillcolor="#f6d5bd"] ;
52 -> 53 ;
54 [label="precio_billete <= 35.25\ngini = 0.375\nsamples = 4\nvalue = [3, 1]\nclass = 0", fillcolor="#eeab7b"] ;
53 -> 54 ;
55 [label="gini = 0.0\nsamples = 3\nvalue = [3, 0]\nclass = 0", fillcolor="#e58139"] ;
54 -> 55 ;
56 [label="gini = 0.0\nsamples = 1\nvalue = [0, 1]\nclass = 1", fillcolor="#399de5"] ;
54 -> 56 ;
57 [label="gini = 0.0\nsamples = 1\nvalue = [0, 1]\nclass = 1", fillcolor="#399de5"] ;
53 -> 57 ;
58 [label="gini = 0.0\nsamples = 2\nvalue = [2, 0]\nclass = 0", fillcolor="#e58139"] ;
52 -> 58 ;
59 [label="gini = 0.0\nsamples = 11\nvalue = [11, 0]\nclass = 0", fillcolor="#e58139"] ;
49 -> 59 ;
60 [label="edad <= 49.5\ngini = 0.472\nsamples = 21\nvalue = [13, 8]\nclass = 0", fillcolor="#f5cfb3"] ;
48 -> 60 ;
61 [label="edad <= 47.0\ngini = 0.494\nsamples = 18\nvalue = [10, 8]\nclass = 0", fillcolor="#fae6d7"] ;
60 -> 61 ;
62 [label="n_hijos_padres <= 0.5\ngini = 0.426\nsamples = 13\nvalue = [9, 4]\nclass = 0", fillcolor="#f1b991"] ;
61 -> 62 ;
63 [label="edad <= 43.0\ngini = 0.375\nsamples = 12\nvalue = [9, 3]\nclass = 0", fillcolor="#eeab7b"] ;
62 -> 63 ;
64 [label="edad <= 37.5\ngini = 0.444\nsamples = 9\nvalue = [6, 3]\nclass = 0", fillcolor="#f2c09c"] ;
63 -> 64 ;
65 [label="precio_billete <= 61.8\ngini = 0.278\nsamples = 6\nvalue = [5, 1]\nclass = 0", fillcolor="#ea9a61"] ;
64 -> 65 ;
66 [label="precio_billete <= 55.05\ngini = 0.444\nsamples = 3\nvalue = [2, 1]\nclass = 0", fillcolor="#f2c09c"] ;
65 -> 66 ;
67 [label="gini = 0.0\nsamples = 2\nvalue = [2, 0]\nclass = 0", fillcolor="#e58139"] ;
66 -> 67 ;
68 [label="gini = 0.0\nsamples = 1\nvalue = [0, 1]\nclass = 1", fillcolor="#399de5"] ;
66 -> 68 ;
69 [label="gini = 0.0\nsamples = 3\nvalue = [3, 0]\nclass = 0", fillcolor="#e58139"] ;
65 -> 69 ;
70 [label="precio_billete <= 52.277\ngini = 0.444\nsamples = 3\nvalue = [1, 2]\nclass = 1", fillcolor="#9ccef2"] ;
64 -> 70 ;
71 [label="gini = 0.0\nsamples = 1\nvalue = [1, 0]\nclass = 0", fillcolor="#e58139"] ;
70 -> 71 ;
72 [label="gini = 0.0\nsamples = 2\nvalue = [0, 2]\nclass = 1", fillcolor="#399de5"] ;
70 -> 72 ;
73 [label="gini = 0.0\nsamples = 3\nvalue = [3, 0]\nclass = 0", fillcolor="#e58139"] ;
63 -> 73 ;
74 [label="gini = 0.0\nsamples = 1\nvalue = [0, 1]\nclass = 1", fillcolor="#399de5"] ;
62 -> 74 ;
75 [label="n_hijos_padres <= 0.5\ngini = 0.32\nsamples = 5\nvalue = [1, 4]\nclass = 1", fillcolor="#6ab6ec"] ;
61 -> 75 ;
76 [label="gini = 0.0\nsamples = 4\nvalue = [0, 4]\nclass = 1", fillcolor="#399de5"] ;
75 -> 76 ;
77 [label="gini = 0.0\nsamples = 1\nvalue = [1, 0]\nclass = 0", fillcolor="#e58139"] ;
75 -> 77 ;
78 [label="gini = 0.0\nsamples = 3\nvalue = [3, 0]\nclass = 0", fillcolor="#e58139"] ;
60 -> 78 ;
79 [label="gini = 0.0\nsamples = 2\nvalue = [0, 2]\nclass = 1", fillcolor="#399de5"] ;
39 -> 79 ;
80 [label="gini = 0.0\nsamples = 7\nvalue = [7, 0]\nclass = 0", fillcolor="#e58139"] ;
30 -> 80 ;
81 [label="gini = 0.0\nsamples = 2\nvalue = [0, 2]\nclass = 1", fillcolor="#399de5"] ;
29 -> 81 ;
82 [label="edad <= 75.5\ngini = 0.245\nsamples = 21\nvalue = [18, 3]\nclass = 0", fillcolor="#e9965a"] ;
14 -> 82 ;
83 [label="puerto_salida_C <= 0.5\ngini = 0.18\nsamples = 20\nvalue = [18, 2]\nclass = 0", fillcolor="#e88f4f"] ;
82 -> 83 ;
84 [label="gini = 0.0\nsamples = 12\nvalue = [12, 0]\nclass = 0", fillcolor="#e58139"] ;
83 -> 84 ;
85 [label="n_hermanos_esposos <= 0.5\ngini = 0.375\nsamples = 8\nvalue = [6, 2]\nclass = 0", fillcolor="#eeab7b"] ;
83 -> 85 ;
86 [label="edad <= 57.0\ngini = 0.245\nsamples = 7\nvalue = [6, 1]\nclass = 0", fillcolor="#e9965a"] ;
85 -> 86 ;
87 [label="precio_billete <= 33.098\ngini = 0.5\nsamples = 2\nvalue = [1, 1]\nclass = 0", fillcolor="#ffffff"] ;
86 -> 87 ;
88 [label="gini = 0.0\nsamples = 1\nvalue = [1, 0]\nclass = 0", fillcolor="#e58139"] ;
87 -> 88 ;
89 [label="gini = 0.0\nsamples = 1\nvalue = [0, 1]\nclass = 1", fillcolor="#399de5"] ;
87 -> 89 ;
90 [label="gini = 0.0\nsamples = 5\nvalue = [5, 0]\nclass = 0", fillcolor="#e58139"] ;
86 -> 90 ;
91 [label="gini = 0.0\nsamples = 1\nvalue = [0, 1]\nclass = 1", fillcolor="#399de5"] ;
85 -> 91 ;
92 [label="gini = 0.0\nsamples = 1\nvalue = [0, 1]\nclass = 1", fillcolor="#399de5"] ;
82 -> 92 ;
93 [label="precio_billete <= 51.698\ngini = 0.204\nsamples = 433\nvalue = [383, 50]\nclass = 0", fillcolor="#e89153"] ;
11 -> 93 ;
94 [label="edad <= 13.0\ngini = 0.193\nsamples = 417\nvalue = [372, 45]\nclass = 0", fillcolor="#e89051"] ;
93 -> 94 ;
95 [label="n_hermanos_esposos <= 2.0\ngini = 0.444\nsamples = 12\nvalue = [8, 4]\nclass = 0", fillcolor="#f2c09c"] ;
94 -> 95 ;
96 [label="edad <= 10.0\ngini = 0.32\nsamples = 5\nvalue = [1, 4]\nclass = 1", fillcolor="#6ab6ec"] ;
95 -> 96 ;
97 [label="gini = 0.0\nsamples = 3\nvalue = [0, 3]\nclass = 1", fillcolor="#399de5"] ;
96 -> 97 ;
98 [label="n_hermanos_esposos <= 0.5\ngini = 0.5\nsamples = 2\nvalue = [1, 1]\nclass = 0", fillcolor="#ffffff"] ;
96 -> 98 ;
99 [label="gini = 0.0\nsamples = 1\nvalue = [1, 0]\nclass = 0", fillcolor="#e58139"] ;
98 -> 99 ;
100 [label="gini = 0.0\nsamples = 1\nvalue = [0, 1]\nclass = 1", fillcolor="#399de5"] ;
98 -> 100 ;
101 [label="gini = 0.0\nsamples = 7\nvalue = [7, 0]\nclass = 0", fillcolor="#e58139"] ;
95 -> 101 ;
102 [label="puerto_salida_C <= 0.5\ngini = 0.182\nsamples = 405\nvalue = [364, 41]\nclass = 0", fillcolor="#e88f4f"] ;
94 -> 102 ;
103 [label="precio_billete <= 13.25\ngini = 0.164\nsamples = 356\nvalue = [324, 32]\nclass = 0", fillcolor="#e88d4d"] ;
102 -> 103 ;
104 [label="precio_billete <= 7.91\ngini = 0.188\nsamples = 285\nvalue = [255, 30]\nclass = 0", fillcolor="#e89050"] ;
103 -> 104 ;
105 [label="precio_billete <= 7.865\ngini = 0.129\nsamples = 144\nvalue = [134, 10]\nclass = 0", fillcolor="#e78a48"] ;
104 -> 105 ;
106 [label="edad <= 32.5\ngini = 0.165\nsamples = 110\nvalue = [100, 10]\nclass = 0", fillcolor="#e88e4d"] ;
105 -> 106 ;
107 [label="edad <= 31.5\ngini = 0.203\nsamples = 87\nvalue = [77, 10]\nclass = 0", fillcolor="#e89153"] ;
106 -> 107 ;
108 [label="edad <= 23.5\ngini = 0.189\nsamples = 85\nvalue = [76, 9]\nclass = 0", fillcolor="#e89050"] ;
107 -> 108 ;
109 [label="precio_billete <= 7.785\ngini = 0.067\nsamples = 29\nvalue = [28, 1]\nclass = 0", fillcolor="#e68640"] ;
108 -> 109 ;
110 [label="gini = 0.0\nsamples = 20\nvalue = [20, 0]\nclass = 0", fillcolor="#e58139"] ;
109 -> 110 ;
111 [label="precio_billete <= 7.798\ngini = 0.198\nsamples = 9\nvalue = [8, 1]\nclass = 0", fillcolor="#e89152"] ;
109 -> 111 ;
112 [label="edad <= 19.5\ngini = 0.444\nsamples = 3\nvalue = [2, 1]\nclass = 0", fillcolor="#f2c09c"] ;
111 -> 112 ;
113 [label="gini = 0.0\nsamples = 1\nvalue = [1, 0]\nclass = 0", fillcolor="#e58139"] ;
112 -> 113 ;
114 [label="edad <= 21.5\ngini = 0.5\nsamples = 2\nvalue = [1, 1]\nclass = 0", fillcolor="#ffffff"] ;
112 -> 114 ;
115 [label="gini = 0.0\nsamples = 1\nvalue = [0, 1]\nclass = 1", fillcolor="#399de5"] ;
114 -> 115 ;
116 [label="gini = 0.0\nsamples = 1\nvalue = [1, 0]\nclass = 0", fillcolor="#e58139"] ;
114 -> 116 ;
117 [label="gini = 0.0\nsamples = 6\nvalue = [6, 0]\nclass = 0", fillcolor="#e58139"] ;
111 -> 117 ;
118 [label="edad <= 29.35\ngini = 0.245\nsamples = 56\nvalue = [48, 8]\nclass = 0", fillcolor="#e9965a"] ;
108 -> 118 ;
119 [label="precio_billete <= 7.01\ngini = 0.408\nsamples = 21\nvalue = [15, 6]\nclass = 0", fillcolor="#efb388"] ;
118 -> 119 ;
120 [label="gini = 0.0\nsamples = 2\nvalue = [0, 2]\nclass = 1", fillcolor="#399de5"] ;
119 -> 120 ;
121 [label="precio_billete <= 7.096\ngini = 0.332\nsamples = 19\nvalue = [15, 4]\nclass = 0", fillcolor="#eca36e"] ;
119 -> 121 ;
122 [label="gini = 0.0\nsamples = 4\nvalue = [4, 0]\nclass = 0", fillcolor="#e58139"] ;
121 -> 122 ;
123 [label="precio_billete <= 7.196\ngini = 0.391\nsamples = 15\nvalue = [11, 4]\nclass = 0", fillcolor="#eeaf81"] ;
121 -> 123 ;
124 [label="gini = 0.0\nsamples = 1\nvalue = [0, 1]\nclass = 1", fillcolor="#399de5"] ;
123 -> 124 ;
125 [label="edad <= 26.5\ngini = 0.337\nsamples = 14\nvalue = [11, 3]\nclass = 0", fillcolor="#eca36f"] ;
123 -> 125 ;
126 [label="n_hermanos_esposos <= 0.5\ngini = 0.198\nsamples = 9\nvalue = [8, 1]\nclass = 0", fillcolor="#e89152"] ;
125 -> 126 ;
127 [label="gini = 0.0\nsamples = 6\nvalue = [6, 0]\nclass = 0", fillcolor="#e58139"] ;
126 -> 127 ;
128 [label="precio_billete <= 7.815\ngini = 0.444\nsamples = 3\nvalue = [2, 1]\nclass = 0", fillcolor="#f2c09c"] ;
126 -> 128 ;
129 [label="gini = 0.5\nsamples = 2\nvalue = [1, 1]\nclass = 0", fillcolor="#ffffff"] ;
128 -> 129 ;
130 [label="gini = 0.0\nsamples = 1\nvalue = [1, 0]\nclass = 0", fillcolor="#e58139"] ;
128 -> 130 ;
131 [label="puerto_salida_Q <= 0.5\ngini = 0.48\nsamples = 5\nvalue = [3, 2]\nclass = 0", fillcolor="#f6d5bd"] ;
125 -> 131 ;
132 [label="edad <= 27.5\ngini = 0.375\nsamples = 4\nvalue = [3, 1]\nclass = 0", fillcolor="#eeab7b"] ;
131 -> 132 ;
133 [label="gini = 0.0\nsamples = 1\nvalue = [0, 1]\nclass = 1", fillcolor="#399de5"] ;
132 -> 133 ;
134 [label="gini = 0.0\nsamples = 3\nvalue = [3, 0]\nclass = 0", fillcolor="#e58139"] ;
132 -> 134 ;
135 [label="gini = 0.0\nsamples = 1\nvalue = [0, 1]\nclass = 1", fillcolor="#399de5"] ;
131 -> 135 ;
136 [label="precio_billete <= 7.763\ngini = 0.108\nsamples = 35\nvalue = [33, 2]\nclass = 0", fillcolor="#e78945"] ;
118 -> 136 ;
137 [label="precio_billete <= 7.744\ngini = 0.062\nsamples = 31\nvalue = [30, 1]\nclass = 0", fillcolor="#e68540"] ;
136 -> 137 ;
138 [label="gini = 0.0\nsamples = 19\nvalue = [19, 0]\nclass = 0", fillcolor="#e58139"] ;
137 -> 138 ;
139 [label="n_hermanos_esposos <= 0.5\ngini = 0.153\nsamples = 12\nvalue = [11, 1]\nclass = 0", fillcolor="#e78c4b"] ;
137 -> 139 ;
140 [label="edad <= 30.35\ngini = 0.165\nsamples = 11\nvalue = [10, 1]\nclass = 0", fillcolor="#e88e4d"] ;
139 -> 140 ;
141 [label="gini = 0.18\nsamples = 10\nvalue = [9, 1]\nclass = 0", fillcolor="#e88f4f"] ;
140 -> 141 ;
142 [label="gini = 0.0\nsamples = 1\nvalue = [1, 0]\nclass = 0", fillcolor="#e58139"] ;
140 -> 142 ;
143 [label="gini = 0.0\nsamples = 1\nvalue = [1, 0]\nclass = 0", fillcolor="#e58139"] ;
139 -> 143 ;
144 [label="edad <= 30.35\ngini = 0.375\nsamples = 4\nvalue = [3, 1]\nclass = 0", fillcolor="#eeab7b"] ;
136 -> 144 ;
145 [label="puerto_salida_Q <= 0.5\ngini = 0.444\nsamples = 3\nvalue = [2, 1]\nclass = 0", fillcolor="#f2c09c"] ;
144 -> 145 ;
146 [label="gini = 0.5\nsamples = 2\nvalue = [1, 1]\nclass = 0", fillcolor="#ffffff"] ;
145 -> 146 ;
147 [label="gini = 0.0\nsamples = 1\nvalue = [1, 0]\nclass = 0", fillcolor="#e58139"] ;
145 -> 147 ;
148 [label="gini = 0.0\nsamples = 1\nvalue = [1, 0]\nclass = 0", fillcolor="#e58139"] ;
144 -> 148 ;
149 [label="puerto_salida_Q <= 0.5\ngini = 0.5\nsamples = 2\nvalue = [1, 1]\nclass = 0", fillcolor="#ffffff"] ;
107 -> 149 ;
150 [label="gini = 0.0\nsamples = 1\nvalue = [0, 1]\nclass = 1", fillcolor="#399de5"] ;
149 -> 150 ;
151 [label="gini = 0.0\nsamples = 1\nvalue = [1, 0]\nclass = 0", fillcolor="#e58139"] ;
149 -> 151 ;
152 [label="gini = 0.0\nsamples = 23\nvalue = [23, 0]\nclass = 0", fillcolor="#e58139"] ;
106 -> 152 ;
153 [label="gini = 0.0\nsamples = 34\nvalue = [34, 0]\nclass = 0", fillcolor="#e58139"] ;
105 -> 153 ;
154 [label="precio_billete <= 7.988\ngini = 0.243\nsamples = 141\nvalue = [121, 20]\nclass = 0", fillcolor="#e9965a"] ;
104 -> 154 ;
155 [label="edad <= 41.5\ngini = 0.473\nsamples = 13\nvalue = [8, 5]\nclass = 0", fillcolor="#f5d0b5"] ;
154 -> 155 ;
156 [label="n_hermanos_esposos <= 1.5\ngini = 0.444\nsamples = 12\nvalue = [8, 4]\nclass = 0", fillcolor="#f2c09c"] ;
155 -> 156 ;
157 [label="n_hermanos_esposos <= 0.5\ngini = 0.48\nsamples = 10\nvalue = [6, 4]\nclass = 0", fillcolor="#f6d5bd"] ;
156 -> 157 ;
158 [label="edad <= 26.0\ngini = 0.444\nsamples = 9\nvalue = [6, 3]\nclass = 0", fillcolor="#f2c09c"] ;
157 -> 158 ;
159 [label="gini = 0.0\nsamples = 3\nvalue = [3, 0]\nclass = 0", fillcolor="#e58139"] ;
158 -> 159 ;
160 [label="edad <= 31.5\ngini = 0.5\nsamples = 6\nvalue = [3, 3]\nclass = 0", fillcolor="#ffffff"] ;
158 -> 160 ;
161 [label="gini = 0.0\nsamples = 1\nvalue = [0, 1]\nclass = 1", fillcolor="#399de5"] ;
160 -> 161 ;
162 [label="edad <= 35.5\ngini = 0.48\nsamples = 5\nvalue = [3, 2]\nclass = 0", fillcolor="#f6d5bd"] ;
160 -> 162 ;
163 [label="gini = 0.444\nsamples = 3\nvalue = [2, 1]\nclass = 0", fillcolor="#f2c09c"] ;
162 -> 163 ;
164 [label="gini = 0.5\nsamples = 2\nvalue = [1, 1]\nclass = 0", fillcolor="#ffffff"] ;
162 -> 164 ;
165 [label="gini = 0.0\nsamples = 1\nvalue = [0, 1]\nclass = 1", fillcolor="#399de5"] ;
157 -> 165 ;
166 [label="gini = 0.0\nsamples = 2\nvalue = [2, 0]\nclass = 0", fillcolor="#e58139"] ;
156 -> 166 ;
167 [label="gini = 0.0\nsamples = 1\nvalue = [0, 1]\nclass = 1", fillcolor="#399de5"] ;
155 -> 167 ;
168 [label="edad <= 19.5\ngini = 0.207\nsamples = 128\nvalue = [113, 15]\nclass = 0", fillcolor="#e89253"] ;
154 -> 168 ;
169 [label="precio_billete <= 8.104\ngini = 0.32\nsamples = 20\nvalue = [16, 4]\nclass = 0", fillcolor="#eca06a"] ;
168 -> 169 ;
170 [label="edad <= 17.0\ngini = 0.48\nsamples = 5\nvalue = [2, 3]\nclass = 1", fillcolor="#bddef6"] ;
169 -> 170 ;
171 [label="gini = 0.5\nsamples = 2\nvalue = [1, 1]\nclass = 0", fillcolor="#ffffff"] ;
170 -> 171 ;
172 [label="edad <= 18.5\ngini = 0.444\nsamples = 3\nvalue = [1, 2]\nclass = 1", fillcolor="#9ccef2"] ;
170 -> 172 ;
173 [label="gini = 0.0\nsamples = 1\nvalue = [0, 1]\nclass = 1", fillcolor="#399de5"] ;
172 -> 173 ;
174 [label="gini = 0.5\nsamples = 2\nvalue = [1, 1]\nclass = 0", fillcolor="#ffffff"] ;
172 -> 174 ;
175 [label="edad <= 18.5\ngini = 0.124\nsamples = 15\nvalue = [14, 1]\nclass = 0", fillcolor="#e78a47"] ;
169 -> 175 ;
176 [label="gini = 0.0\nsamples = 10\nvalue = [10, 0]\nclass = 0", fillcolor="#e58139"] ;
175 -> 176 ;
177 [label="clase_billete <= 2.5\ngini = 0.32\nsamples = 5\nvalue = [4, 1]\nclass = 0", fillcolor="#eca06a"] ;
175 -> 177 ;
178 [label="precio_billete <= 11.75\ngini = 0.444\nsamples = 3\nvalue = [2, 1]\nclass = 0", fillcolor="#f2c09c"] ;
177 -> 178 ;
179 [label="gini = 0.5\nsamples = 2\nvalue = [1, 1]\nclass = 0", fillcolor="#ffffff"] ;
178 -> 179 ;
180 [label="gini = 0.0\nsamples = 1\nvalue = [1, 0]\nclass = 0", fillcolor="#e58139"] ;
178 -> 180 ;
181 [label="gini = 0.0\nsamples = 2\nvalue = [2, 0]\nclass = 0", fillcolor="#e58139"] ;
177 -> 181 ;
182 [label="edad <= 26.5\ngini = 0.183\nsamples = 108\nvalue = [97, 11]\nclass = 0", fillcolor="#e88f4f"] ;
168 -> 182 ;
183 [label="gini = 0.0\nsamples = 31\nvalue = [31, 0]\nclass = 0", fillcolor="#e58139"] ;
182 -> 183 ;
184 [label="precio_billete <= 8.081\ngini = 0.245\nsamples = 77\nvalue = [66, 11]\nclass = 0", fillcolor="#e9965a"] ;
182 -> 184 ;
185 [label="edad <= 31.25\ngini = 0.133\nsamples = 28\nvalue = [26, 2]\nclass = 0", fillcolor="#e78b48"] ;
184 -> 185 ;
186 [label="gini = 0.0\nsamples = 16\nvalue = [16, 0]\nclass = 0", fillcolor="#e58139"] ;
185 -> 186 ;
187 [label="edad <= 33.0\ngini = 0.278\nsamples = 12\nvalue = [10, 2]\nclass = 0", fillcolor="#ea9a61"] ;
185 -> 187 ;
188 [label="gini = 0.0\nsamples = 1\nvalue = [0, 1]\nclass = 1", fillcolor="#399de5"] ;
187 -> 188 ;
189 [label="edad <= 44.5\ngini = 0.165\nsamples = 11\nvalue = [10, 1]\nclass = 0", fillcolor="#e88e4d"] ;
187 -> 189 ;
190 [label="gini = 0.0\nsamples = 7\nvalue = [7, 0]\nclass = 0", fillcolor="#e58139"] ;
189 -> 190 ;
191 [label="edad <= 47.5\ngini = 0.375\nsamples = 4\nvalue = [3, 1]\nclass = 0", fillcolor="#eeab7b"] ;
189 -> 191 ;
192 [label="gini = 0.0\nsamples = 1\nvalue = [0, 1]\nclass = 1", fillcolor="#399de5"] ;
191 -> 192 ;
193 [label="gini = 0.0\nsamples = 3\nvalue = [3, 0]\nclass = 0", fillcolor="#e58139"] ;
191 -> 193 ;
194 [label="precio_billete <= 8.238\ngini = 0.3\nsamples = 49\nvalue = [40, 9]\nclass = 0", fillcolor="#eb9d66"] ;
184 -> 194 ;
195 [label="gini = 0.0\nsamples = 1\nvalue = [0, 1]\nclass = 1", fillcolor="#399de5"] ;
194 -> 195 ;
196 [label="edad <= 31.5\ngini = 0.278\nsamples = 48\nvalue = [40, 8]\nclass = 0", fillcolor="#ea9a61"] ;
194 -> 196 ;
197 [label="edad <= 30.5\ngini = 0.363\nsamples = 21\nvalue = [16, 5]\nclass = 0", fillcolor="#eda877"] ;
196 -> 197 ;
198 [label="clase_billete <= 2.5\ngini = 0.332\nsamples = 19\nvalue = [15, 4]\nclass = 0", fillcolor="#eca36e"] ;
197 -> 198 ;
199 [label="edad <= 29.35\ngini = 0.18\nsamples = 10\nvalue = [9, 1]\nclass = 0", fillcolor="#e88f4f"] ;
198 -> 199 ;
200 [label="gini = 0.0\nsamples = 5\nvalue = [5, 0]\nclass = 0", fillcolor="#e58139"] ;
199 -> 200 ;
201 [label="edad <= 29.85\ngini = 0.32\nsamples = 5\nvalue = [4, 1]\nclass = 0", fillcolor="#eca06a"] ;
199 -> 201 ;
202 [label="gini = 0.0\nsamples = 1\nvalue = [0, 1]\nclass = 1", fillcolor="#399de5"] ;
201 -> 202 ;
203 [label="gini = 0.0\nsamples = 4\nvalue = [4, 0]\nclass = 0", fillcolor="#e58139"] ;
201 -> 203 ;
204 [label="edad <= 27.5\ngini = 0.444\nsamples = 9\nvalue = [6, 3]\nclass = 0", fillcolor="#f2c09c"] ;
198 -> 204 ;
205 [label="gini = 0.0\nsamples = 1\nvalue = [0, 1]\nclass = 1", fillcolor="#399de5"] ;
204 -> 205 ;
206 [label="edad <= 29.85\ngini = 0.375\nsamples = 8\nvalue = [6, 2]\nclass = 0", fillcolor="#eeab7b"] ;
204 -> 206 ;
207 [label="precio_billete <= 9.492\ngini = 0.245\nsamples = 7\nvalue = [6, 1]\nclass = 0", fillcolor="#e9965a"] ;
206 -> 207 ;
208 [label="gini = 0.0\nsamples = 3\nvalue = [3, 0]\nclass = 0", fillcolor="#e58139"] ;
207 -> 208 ;
209 [label="edad <= 28.5\ngini = 0.375\nsamples = 4\nvalue = [3, 1]\nclass = 0", fillcolor="#eeab7b"] ;
207 -> 209 ;
210 [label="gini = 0.0\nsamples = 2\nvalue = [2, 0]\nclass = 0", fillcolor="#e58139"] ;
209 -> 210 ;
211 [label="edad <= 29.35\ngini = 0.5\nsamples = 2\nvalue = [1, 1]\nclass = 0", fillcolor="#ffffff"] ;
209 -> 211 ;
212 [label="gini = 0.0\nsamples = 1\nvalue = [0, 1]\nclass = 1", fillcolor="#399de5"] ;
211 -> 212 ;
213 [label="gini = 0.0\nsamples = 1\nvalue = [1, 0]\nclass = 0", fillcolor="#e58139"] ;
211 -> 213 ;
214 [label="gini = 0.0\nsamples = 1\nvalue = [0, 1]\nclass = 1", fillcolor="#399de5"] ;
206 -> 214 ;
215 [label="precio_billete <= 11.75\ngini = 0.5\nsamples = 2\nvalue = [1, 1]\nclass = 0", fillcolor="#ffffff"] ;
197 -> 215 ;
216 [label="gini = 0.0\nsamples = 1\nvalue = [1, 0]\nclass = 0", fillcolor="#e58139"] ;
215 -> 216 ;
217 [label="gini = 0.0\nsamples = 1\nvalue = [0, 1]\nclass = 1", fillcolor="#399de5"] ;
215 -> 217 ;
218 [label="edad <= 59.5\ngini = 0.198\nsamples = 27\nvalue = [24, 3]\nclass = 0", fillcolor="#e89152"] ;
196 -> 218 ;
219 [label="precio_billete <= 12.762\ngini = 0.153\nsamples = 24\nvalue = [22, 2]\nclass = 0", fillcolor="#e78c4b"] ;
218 -> 219 ;
220 [label="gini = 0.0\nsamples = 13\nvalue = [13, 0]\nclass = 0", fillcolor="#e58139"] ;
219 -> 220 ;
221 [label="edad <= 45.0\ngini = 0.298\nsamples = 11\nvalue = [9, 2]\nclass = 0", fillcolor="#eb9d65"] ;
219 -> 221 ;
222 [label="edad <= 40.5\ngini = 0.375\nsamples = 8\nvalue = [6, 2]\nclass = 0", fillcolor="#eeab7b"] ;
221 -> 222 ;
223 [label="edad <= 35.0\ngini = 0.278\nsamples = 6\nvalue = [5, 1]\nclass = 0", fillcolor="#ea9a61"] ;
222 -> 223 ;
224 [label="gini = 0.444\nsamples = 3\nvalue = [2, 1]\nclass = 0", fillcolor="#f2c09c"] ;
223 -> 224 ;
225 [label="gini = 0.0\nsamples = 3\nvalue = [3, 0]\nclass = 0", fillcolor="#e58139"] ;
223 -> 225 ;
226 [label="gini = 0.5\nsamples = 2\nvalue = [1, 1]\nclass = 0", fillcolor="#ffffff"] ;
222 -> 226 ;
227 [label="gini = 0.0\nsamples = 3\nvalue = [3, 0]\nclass = 0", fillcolor="#e58139"] ;
221 -> 227 ;
228 [label="edad <= 64.0\ngini = 0.444\nsamples = 3\nvalue = [2, 1]\nclass = 0", fillcolor="#f2c09c"] ;
218 -> 228 ;
229 [label="gini = 0.0\nsamples = 1\nvalue = [0, 1]\nclass = 1", fillcolor="#399de5"] ;
228 -> 229 ;
230 [label="gini = 0.0\nsamples = 2\nvalue = [2, 0]\nclass = 0", fillcolor="#e58139"] ;
228 -> 230 ;
231 [label="puerto_salida_S <= 0.5\ngini = 0.055\nsamples = 71\nvalue = [69, 2]\nclass = 0", fillcolor="#e6853f"] ;
103 -> 231 ;
232 [label="n_hermanos_esposos <= 1.5\ngini = 0.245\nsamples = 7\nvalue = [6, 1]\nclass = 0", fillcolor="#e9965a"] ;
231 -> 232 ;
233 [label="gini = 0.0\nsamples = 6\nvalue = [6, 0]\nclass = 0", fillcolor="#e58139"] ;
232 -> 233 ;
234 [label="gini = 0.0\nsamples = 1\nvalue = [0, 1]\nclass = 1", fillcolor="#399de5"] ;
232 -> 234 ;
235 [label="precio_billete <= 25.733\ngini = 0.031\nsamples = 64\nvalue = [63, 1]\nclass = 0", fillcolor="#e5833c"] ;
231 -> 235 ;
236 [label="gini = 0.0\nsamples = 38\nvalue = [38, 0]\nclass = 0", fillcolor="#e58139"] ;
235 -> 236 ;
237 [label="edad <= 33.0\ngini = 0.074\nsamples = 26\nvalue = [25, 1]\nclass = 0", fillcolor="#e68641"] ;
235 -> 237 ;
238 [label="edad <= 31.5\ngini = 0.165\nsamples = 11\nvalue = [10, 1]\nclass = 0", fillcolor="#e88e4d"] ;
237 -> 238 ;
239 [label="gini = 0.0\nsamples = 10\nvalue = [10, 0]\nclass = 0", fillcolor="#e58139"] ;
238 -> 239 ;
240 [label="gini = 0.0\nsamples = 1\nvalue = [0, 1]\nclass = 1", fillcolor="#399de5"] ;
238 -> 240 ;
241 [label="gini = 0.0\nsamples = 15\nvalue = [15, 0]\nclass = 0", fillcolor="#e58139"] ;
237 -> 241 ;
242 [label="precio_billete <= 15.148\ngini = 0.3\nsamples = 49\nvalue = [40, 9]\nclass = 0", fillcolor="#eb9d66"] ;
102 -> 242 ;
243 [label="edad <= 22.5\ngini = 0.224\nsamples = 39\nvalue = [34, 5]\nclass = 0", fillcolor="#e99456"] ;
242 -> 243 ;
244 [label="n_hijos_padres <= 0.5\ngini = 0.444\nsamples = 6\nvalue = [4, 2]\nclass = 0", fillcolor="#f2c09c"] ;
243 -> 244 ;
245 [label="precio_billete <= 5.619\ngini = 0.5\nsamples = 4\nvalue = [2, 2]\nclass = 0", fillcolor="#ffffff"] ;
244 -> 245 ;
246 [label="gini = 0.0\nsamples = 1\nvalue = [1, 0]\nclass = 0", fillcolor="#e58139"] ;
245 -> 246 ;
247 [label="edad <= 21.0\ngini = 0.444\nsamples = 3\nvalue = [1, 2]\nclass = 1", fillcolor="#9ccef2"] ;
245 -> 247 ;
248 [label="gini = 0.0\nsamples = 1\nvalue = [0, 1]\nclass = 1", fillcolor="#399de5"] ;
247 -> 248 ;
249 [label="precio_billete <= 7.227\ngini = 0.5\nsamples = 2\nvalue = [1, 1]\nclass = 0", fillcolor="#ffffff"] ;
247 -> 249 ;
250 [label="gini = 0.0\nsamples = 1\nvalue = [0, 1]\nclass = 1", fillcolor="#399de5"] ;
249 -> 250 ;
251 [label="gini = 0.0\nsamples = 1\nvalue = [1, 0]\nclass = 0", fillcolor="#e58139"] ;
249 -> 251 ;
252 [label="gini = 0.0\nsamples = 2\nvalue = [2, 0]\nclass = 0", fillcolor="#e58139"] ;
244 -> 252 ;
253 [label="precio_billete <= 7.227\ngini = 0.165\nsamples = 33\nvalue = [30, 3]\nclass = 0", fillcolor="#e88e4d"] ;
243 -> 253 ;
254 [label="gini = 0.0\nsamples = 10\nvalue = [10, 0]\nclass = 0", fillcolor="#e58139"] ;
253 -> 254 ;
255 [label="edad <= 28.75\ngini = 0.227\nsamples = 23\nvalue = [20, 3]\nclass = 0", fillcolor="#e99457"] ;
253 -> 255 ;
256 [label="gini = 0.0\nsamples = 5\nvalue = [5, 0]\nclass = 0", fillcolor="#e58139"] ;
255 -> 256 ;
257 [label="edad <= 29.35\ngini = 0.278\nsamples = 18\nvalue = [15, 3]\nclass = 0", fillcolor="#ea9a61"] ;
255 -> 257 ;
258 [label="gini = 0.0\nsamples = 1\nvalue = [0, 1]\nclass = 1", fillcolor="#399de5"] ;
257 -> 258 ;
259 [label="clase_billete <= 2.5\ngini = 0.208\nsamples = 17\nvalue = [15, 2]\nclass = 0", fillcolor="#e89253"] ;
257 -> 259 ;
260 [label="edad <= 32.85\ngini = 0.444\nsamples = 3\nvalue = [2, 1]\nclass = 0", fillcolor="#f2c09c"] ;
259 -> 260 ;
261 [label="precio_billete <= 14.456\ngini = 0.5\nsamples = 2\nvalue = [1, 1]\nclass = 0", fillcolor="#ffffff"] ;
260 -> 261 ;
262 [label="gini = 0.0\nsamples = 1\nvalue = [0, 1]\nclass = 1", fillcolor="#399de5"] ;
261 -> 262 ;
263 [label="gini = 0.0\nsamples = 1\nvalue = [1, 0]\nclass = 0", fillcolor="#e58139"] ;
261 -> 263 ;
264 [label="gini = 0.0\nsamples = 1\nvalue = [1, 0]\nclass = 0", fillcolor="#e58139"] ;
260 -> 264 ;
265 [label="precio_billete <= 7.562\ngini = 0.133\nsamples = 14\nvalue = [13, 1]\nclass = 0", fillcolor="#e78b48"] ;
259 -> 265 ;
266 [label="edad <= 29.85\ngini = 0.245\nsamples = 7\nvalue = [6, 1]\nclass = 0", fillcolor="#e9965a"] ;
265 -> 266 ;
267 [label="gini = 0.278\nsamples = 6\nvalue = [5, 1]\nclass = 0", fillcolor="#ea9a61"] ;
266 -> 267 ;
268 [label="gini = 0.0\nsamples = 1\nvalue = [1, 0]\nclass = 0", fillcolor="#e58139"] ;
266 -> 268 ;
269 [label="gini = 0.0\nsamples = 7\nvalue = [7, 0]\nclass = 0", fillcolor="#e58139"] ;
265 -> 269 ;
270 [label="precio_billete <= 20.233\ngini = 0.48\nsamples = 10\nvalue = [6, 4]\nclass = 0", fillcolor="#f6d5bd"] ;
242 -> 270 ;
271 [label="gini = 0.0\nsamples = 4\nvalue = [0, 4]\nclass = 1", fillcolor="#399de5"] ;
270 -> 271 ;
272 [label="gini = 0.0\nsamples = 6\nvalue = [6, 0]\nclass = 0", fillcolor="#e58139"] ;
270 -> 272 ;
273 [label="precio_billete <= 63.023\ngini = 0.43\nsamples = 16\nvalue = [11, 5]\nclass = 0", fillcolor="#f1ba93"] ;
93 -> 273 ;
274 [label="edad <= 30.85\ngini = 0.408\nsamples = 7\nvalue = [2, 5]\nclass = 1", fillcolor="#88c4ef"] ;
273 -> 274 ;
275 [label="edad <= 27.0\ngini = 0.48\nsamples = 5\nvalue = [2, 3]\nclass = 1", fillcolor="#bddef6"] ;
274 -> 275 ;
276 [label="gini = 0.0\nsamples = 1\nvalue = [0, 1]\nclass = 1", fillcolor="#399de5"] ;
275 -> 276 ;
277 [label="edad <= 28.85\ngini = 0.5\nsamples = 4\nvalue = [2, 2]\nclass = 0", fillcolor="#ffffff"] ;
275 -> 277 ;
278 [label="gini = 0.0\nsamples = 1\nvalue = [1, 0]\nclass = 0", fillcolor="#e58139"] ;
277 -> 278 ;
279 [label="gini = 0.444\nsamples = 3\nvalue = [1, 2]\nclass = 1", fillcolor="#9ccef2"] ;
277 -> 279 ;
280 [label="gini = 0.0\nsamples = 2\nvalue = [0, 2]\nclass = 1", fillcolor="#399de5"] ;
274 -> 280 ;
281 [label="gini = 0.0\nsamples = 9\nvalue = [9, 0]\nclass = 0", fillcolor="#e58139"] ;
273 -> 281 ;
282 [label="clase_billete <= 2.5\ngini = 0.383\nsamples = 314\nvalue = [81, 233]\nclass = 1", fillcolor="#7ebfee"] ;
0 -> 282 [labeldistance=2.5, labelangle=-45, headlabel="False"] ;
283 [label="edad <= 2.5\ngini = 0.1\nsamples = 170\nvalue = [9, 161]\nclass = 1", fillcolor="#44a2e6"] ;
282 -> 283 ;
284 [label="n_hijos_padres <= 1.5\ngini = 0.5\nsamples = 2\nvalue = [1, 1]\nclass = 0", fillcolor="#ffffff"] ;
283 -> 284 ;
285 [label="gini = 0.0\nsamples = 1\nvalue = [0, 1]\nclass = 1", fillcolor="#399de5"] ;
284 -> 285 ;
286 [label="gini = 0.0\nsamples = 1\nvalue = [1, 0]\nclass = 0", fillcolor="#e58139"] ;
284 -> 286 ;
287 [label="precio_billete <= 28.856\ngini = 0.091\nsamples = 168\nvalue = [8, 160]\nclass = 1", fillcolor="#43a2e6"] ;
283 -> 287 ;
288 [label="precio_billete <= 28.231\ngini = 0.182\nsamples = 69\nvalue = [7, 62]\nclass = 1", fillcolor="#4fa8e8"] ;
287 -> 288 ;
289 [label="edad <= 56.0\ngini = 0.161\nsamples = 68\nvalue = [6, 62]\nclass = 1", fillcolor="#4ca6e8"] ;
288 -> 289 ;
290 [label="n_hermanos_esposos <= 0.5\ngini = 0.14\nsamples = 66\nvalue = [5, 61]\nclass = 1", fillcolor="#49a5e7"] ;
289 -> 290 ;
291 [label="precio_billete <= 13.25\ngini = 0.085\nsamples = 45\nvalue = [2, 43]\nclass = 1", fillcolor="#42a2e6"] ;
290 -> 291 ;
292 [label="precio_billete <= 12.825\ngini = 0.147\nsamples = 25\nvalue = [2, 23]\nclass = 1", fillcolor="#4aa6e7"] ;
291 -> 292 ;
293 [label="gini = 0.0\nsamples = 11\nvalue = [0, 11]\nclass = 1", fillcolor="#399de5"] ;
292 -> 293 ;
294 [label="edad <= 26.0\ngini = 0.245\nsamples = 14\nvalue = [2, 12]\nclass = 1", fillcolor="#5aade9"] ;
292 -> 294 ;
295 [label="edad <= 21.0\ngini = 0.444\nsamples = 3\nvalue = [1, 2]\nclass = 1", fillcolor="#9ccef2"] ;
294 -> 295 ;
296 [label="gini = 0.0\nsamples = 1\nvalue = [0, 1]\nclass = 1", fillcolor="#399de5"] ;
295 -> 296 ;
297 [label="gini = 0.5\nsamples = 2\nvalue = [1, 1]\nclass = 0", fillcolor="#ffffff"] ;
295 -> 297 ;
298 [label="edad <= 37.0\ngini = 0.165\nsamples = 11\nvalue = [1, 10]\nclass = 1", fillcolor="#4da7e8"] ;
294 -> 298 ;
299 [label="gini = 0.0\nsamples = 8\nvalue = [0, 8]\nclass = 1", fillcolor="#399de5"] ;
298 -> 299 ;
300 [label="edad <= 39.0\ngini = 0.444\nsamples = 3\nvalue = [1, 2]\nclass = 1", fillcolor="#9ccef2"] ;
298 -> 300 ;
301 [label="gini = 0.0\nsamples = 1\nvalue = [1, 0]\nclass = 0", fillcolor="#e58139"] ;
300 -> 301 ;
302 [label="gini = 0.0\nsamples = 2\nvalue = [0, 2]\nclass = 1", fillcolor="#399de5"] ;
300 -> 302 ;
303 [label="gini = 0.0\nsamples = 20\nvalue = [0, 20]\nclass = 1", fillcolor="#399de5"] ;
291 -> 303 ;
304 [label="edad <= 25.0\ngini = 0.245\nsamples = 21\nvalue = [3, 18]\nclass = 1", fillcolor="#5aade9"] ;
290 -> 304 ;
305 [label="gini = 0.0\nsamples = 6\nvalue = [0, 6]\nclass = 1", fillcolor="#399de5"] ;
304 -> 305 ;
306 [label="edad <= 27.5\ngini = 0.32\nsamples = 15\nvalue = [3, 12]\nclass = 1", fillcolor="#6ab6ec"] ;
304 -> 306 ;
307 [label="puerto_salida_S <= 0.5\ngini = 0.444\nsamples = 3\nvalue = [2, 1]\nclass = 0", fillcolor="#f2c09c"] ;
306 -> 307 ;
308 [label="gini = 0.0\nsamples = 1\nvalue = [0, 1]\nclass = 1", fillcolor="#399de5"] ;
307 -> 308 ;
309 [label="gini = 0.0\nsamples = 2\nvalue = [2, 0]\nclass = 0", fillcolor="#e58139"] ;
307 -> 309 ;
310 [label="edad <= 43.0\ngini = 0.153\nsamples = 12\nvalue = [1, 11]\nclass = 1", fillcolor="#4ba6e7"] ;
306 -> 310 ;
311 [label="gini = 0.0\nsamples = 9\nvalue = [0, 9]\nclass = 1", fillcolor="#399de5"] ;
310 -> 311 ;
312 [label="edad <= 44.5\ngini = 0.444\nsamples = 3\nvalue = [1, 2]\nclass = 1", fillcolor="#9ccef2"] ;
310 -> 312 ;
313 [label="gini = 0.0\nsamples = 1\nvalue = [1, 0]\nclass = 0", fillcolor="#e58139"] ;
312 -> 313 ;
314 [label="gini = 0.0\nsamples = 2\nvalue = [0, 2]\nclass = 1", fillcolor="#399de5"] ;
312 -> 314 ;
315 [label="clase_billete <= 1.5\ngini = 0.5\nsamples = 2\nvalue = [1, 1]\nclass = 0", fillcolor="#ffffff"] ;
289 -> 315 ;
316 [label="gini = 0.0\nsamples = 1\nvalue = [0, 1]\nclass = 1", fillcolor="#399de5"] ;
315 -> 316 ;
317 [label="gini = 0.0\nsamples = 1\nvalue = [1, 0]\nclass = 0", fillcolor="#e58139"] ;
315 -> 317 ;
318 [label="gini = 0.0\nsamples = 1\nvalue = [1, 0]\nclass = 0", fillcolor="#e58139"] ;
288 -> 318 ;
319 [label="n_hijos_padres <= 1.5\ngini = 0.02\nsamples = 99\nvalue = [1, 98]\nclass = 1", fillcolor="#3b9ee5"] ;
287 -> 319 ;
320 [label="gini = 0.0\nsamples = 84\nvalue = [0, 84]\nclass = 1", fillcolor="#399de5"] ;
319 -> 320 ;
321 [label="edad <= 24.5\ngini = 0.124\nsamples = 15\nvalue = [1, 14]\nclass = 1", fillcolor="#47a4e7"] ;
319 -> 321 ;
322 [label="gini = 0.0\nsamples = 10\nvalue = [0, 10]\nclass = 1", fillcolor="#399de5"] ;
321 -> 322 ;
323 [label="edad <= 28.0\ngini = 0.32\nsamples = 5\nvalue = [1, 4]\nclass = 1", fillcolor="#6ab6ec"] ;
321 -> 323 ;
324 [label="gini = 0.0\nsamples = 1\nvalue = [1, 0]\nclass = 0", fillcolor="#e58139"] ;
323 -> 324 ;
325 [label="gini = 0.0\nsamples = 4\nvalue = [0, 4]\nclass = 1", fillcolor="#399de5"] ;
323 -> 325 ;
326 [label="precio_billete <= 23.35\ngini = 0.5\nsamples = 144\nvalue = [72, 72]\nclass = 0", fillcolor="#ffffff"] ;
282 -> 326 ;
327 [label="edad <= 36.5\ngini = 0.484\nsamples = 117\nvalue = [48, 69]\nclass = 1", fillcolor="#c3e1f7"] ;
326 -> 327 ;
328 [label="puerto_salida_S <= 0.5\ngini = 0.472\nsamples = 110\nvalue = [42, 68]\nclass = 1", fillcolor="#b3daf5"] ;
327 -> 328 ;
329 [label="edad <= 30.1\ngini = 0.406\nsamples = 53\nvalue = [15, 38]\nclass = 1", fillcolor="#87c4ef"] ;
328 -> 329 ;
330 [label="precio_billete <= 15.373\ngini = 0.38\nsamples = 51\nvalue = [13, 38]\nclass = 1", fillcolor="#7dbfee"] ;
329 -> 330 ;
331 [label="precio_billete <= 13.935\ngini = 0.439\nsamples = 40\nvalue = [13, 27]\nclass = 1", fillcolor="#98ccf2"] ;
330 -> 331 ;
332 [label="precio_billete <= 6.987\ngini = 0.312\nsamples = 31\nvalue = [6, 25]\nclass = 1", fillcolor="#69b5eb"] ;
331 -> 332 ;
333 [label="gini = 0.0\nsamples = 1\nvalue = [1, 0]\nclass = 0", fillcolor="#e58139"] ;
332 -> 333 ;
334 [label="n_hijos_padres <= 1.5\ngini = 0.278\nsamples = 30\nvalue = [5, 25]\nclass = 1", fillcolor="#61b1ea"] ;
332 -> 334 ;
335 [label="edad <= 20.0\ngini = 0.238\nsamples = 29\nvalue = [4, 25]\nclass = 1", fillcolor="#59ade9"] ;
334 -> 335 ;
336 [label="gini = 0.0\nsamples = 8\nvalue = [0, 8]\nclass = 1", fillcolor="#399de5"] ;
335 -> 336 ;
337 [label="precio_billete <= 8.008\ngini = 0.308\nsamples = 21\nvalue = [4, 17]\nclass = 1", fillcolor="#68b4eb"] ;
335 -> 337 ;
338 [label="edad <= 21.5\ngini = 0.255\nsamples = 20\nvalue = [3, 17]\nclass = 1", fillcolor="#5caeea"] ;
337 -> 338 ;
339 [label="gini = 0.0\nsamples = 1\nvalue = [1, 0]\nclass = 0", fillcolor="#e58139"] ;
338 -> 339 ;
340 [label="precio_billete <= 7.681\ngini = 0.188\nsamples = 19\nvalue = [2, 17]\nclass = 1", fillcolor="#50a9e8"] ;
338 -> 340 ;
341 [label="puerto_salida_Q <= 0.5\ngini = 0.444\nsamples = 3\nvalue = [1, 2]\nclass = 1", fillcolor="#9ccef2"] ;
340 -> 341 ;
342 [label="gini = 0.0\nsamples = 2\nvalue = [0, 2]\nclass = 1", fillcolor="#399de5"] ;
341 -> 342 ;
343 [label="gini = 0.0\nsamples = 1\nvalue = [1, 0]\nclass = 0", fillcolor="#e58139"] ;
341 -> 343 ;
344 [label="precio_billete <= 7.769\ngini = 0.117\nsamples = 16\nvalue = [1, 15]\nclass = 1", fillcolor="#46a4e7"] ;
340 -> 344 ;
345 [label="precio_billete <= 7.744\ngini = 0.165\nsamples = 11\nvalue = [1, 10]\nclass = 1", fillcolor="#4da7e8"] ;
344 -> 345 ;
346 [label="gini = 0.0\nsamples = 2\nvalue = [0, 2]\nclass = 1", fillcolor="#399de5"] ;
345 -> 346 ;
347 [label="edad <= 25.85\ngini = 0.198\nsamples = 9\nvalue = [1, 8]\nclass = 1", fillcolor="#52a9e8"] ;
345 -> 347 ;
348 [label="gini = 0.0\nsamples = 1\nvalue = [0, 1]\nclass = 1", fillcolor="#399de5"] ;
347 -> 348 ;
349 [label="gini = 0.219\nsamples = 8\nvalue = [1, 7]\nclass = 1", fillcolor="#55abe9"] ;
347 -> 349 ;
350 [label="gini = 0.0\nsamples = 5\nvalue = [0, 5]\nclass = 1", fillcolor="#399de5"] ;
344 -> 350 ;
351 [label="gini = 0.0\nsamples = 1\nvalue = [1, 0]\nclass = 0", fillcolor="#e58139"] ;
337 -> 351 ;
352 [label="gini = 0.0\nsamples = 1\nvalue = [1, 0]\nclass = 0", fillcolor="#e58139"] ;
334 -> 352 ;
353 [label="edad <= 29.35\ngini = 0.346\nsamples = 9\nvalue = [7, 2]\nclass = 0", fillcolor="#eca572"] ;
331 -> 353 ;
354 [label="edad <= 23.5\ngini = 0.444\nsamples = 6\nvalue = [4, 2]\nclass = 0", fillcolor="#f2c09c"] ;
353 -> 354 ;
355 [label="precio_billete <= 14.456\ngini = 0.32\nsamples = 5\nvalue = [4, 1]\nclass = 0", fillcolor="#eca06a"] ;
354 -> 355 ;
356 [label="n_hermanos_esposos <= 0.5\ngini = 0.444\nsamples = 3\nvalue = [2, 1]\nclass = 0", fillcolor="#f2c09c"] ;
355 -> 356 ;
357 [label="gini = 0.0\nsamples = 1\nvalue = [1, 0]\nclass = 0", fillcolor="#e58139"] ;
356 -> 357 ;
358 [label="edad <= 14.75\ngini = 0.5\nsamples = 2\nvalue = [1, 1]\nclass = 0", fillcolor="#ffffff"] ;
356 -> 358 ;
359 [label="gini = 0.0\nsamples = 1\nvalue = [1, 0]\nclass = 0", fillcolor="#e58139"] ;
358 -> 359 ;
360 [label="gini = 0.0\nsamples = 1\nvalue = [0, 1]\nclass = 1", fillcolor="#399de5"] ;
358 -> 360 ;
361 [label="gini = 0.0\nsamples = 2\nvalue = [2, 0]\nclass = 0", fillcolor="#e58139"] ;
355 -> 361 ;
362 [label="gini = 0.0\nsamples = 1\nvalue = [0, 1]\nclass = 1", fillcolor="#399de5"] ;
354 -> 362 ;
363 [label="gini = 0.0\nsamples = 3\nvalue = [3, 0]\nclass = 0", fillcolor="#e58139"] ;
353 -> 363 ;
364 [label="gini = 0.0\nsamples = 11\nvalue = [0, 11]\nclass = 1", fillcolor="#399de5"] ;
330 -> 364 ;
365 [label="gini = 0.0\nsamples = 2\nvalue = [2, 0]\nclass = 0", fillcolor="#e58139"] ;
329 -> 365 ;
366 [label="precio_billete <= 10.825\ngini = 0.499\nsamples = 57\nvalue = [27, 30]\nclass = 1", fillcolor="#ebf5fc"] ;
328 -> 366 ;
367 [label="precio_billete <= 7.763\ngini = 0.489\nsamples = 33\nvalue = [19, 14]\nclass = 0", fillcolor="#f8decb"] ;
366 -> 367 ;
368 [label="edad <= 26.35\ngini = 0.278\nsamples = 6\nvalue = [1, 5]\nclass = 1", fillcolor="#61b1ea"] ;
367 -> 368 ;
369 [label="gini = 0.0\nsamples = 5\nvalue = [0, 5]\nclass = 1", fillcolor="#399de5"] ;
368 -> 369 ;
370 [label="gini = 0.0\nsamples = 1\nvalue = [1, 0]\nclass = 0", fillcolor="#e58139"] ;
368 -> 370 ;
371 [label="edad <= 19.5\ngini = 0.444\nsamples = 27\nvalue = [18, 9]\nclass = 0", fillcolor="#f2c09c"] ;
367 -> 371 ;
372 [label="edad <= 15.5\ngini = 0.49\nsamples = 7\nvalue = [3, 4]\nclass = 1", fillcolor="#cee6f8"] ;
371 -> 372 ;
373 [label="gini = 0.0\nsamples = 2\nvalue = [2, 0]\nclass = 0", fillcolor="#e58139"] ;
372 -> 373 ;
374 [label="precio_billete <= 7.815\ngini = 0.32\nsamples = 5\nvalue = [1, 4]\nclass = 1", fillcolor="#6ab6ec"] ;
372 -> 374 ;
375 [label="gini = 0.0\nsamples = 1\nvalue = [1, 0]\nclass = 0", fillcolor="#e58139"] ;
374 -> 375 ;
376 [label="gini = 0.0\nsamples = 4\nvalue = [0, 4]\nclass = 1", fillcolor="#399de5"] ;
374 -> 376 ;
377 [label="precio_billete <= 7.988\ngini = 0.375\nsamples = 20\nvalue = [15, 5]\nclass = 0", fillcolor="#eeab7b"] ;
371 -> 377 ;
378 [label="edad <= 27.5\ngini = 0.494\nsamples = 9\nvalue = [5, 4]\nclass = 0", fillcolor="#fae6d7"] ;
377 -> 378 ;
379 [label="edad <= 25.5\ngini = 0.49\nsamples = 7\nvalue = [3, 4]\nclass = 1", fillcolor="#cee6f8"] ;
378 -> 379 ;
380 [label="edad <= 22.5\ngini = 0.375\nsamples = 4\nvalue = [3, 1]\nclass = 0", fillcolor="#eeab7b"] ;
379 -> 380 ;
381 [label="gini = 0.0\nsamples = 1\nvalue = [0, 1]\nclass = 1", fillcolor="#399de5"] ;
380 -> 381 ;
382 [label="gini = 0.0\nsamples = 3\nvalue = [3, 0]\nclass = 0", fillcolor="#e58139"] ;
380 -> 382 ;
383 [label="gini = 0.0\nsamples = 3\nvalue = [0, 3]\nclass = 1", fillcolor="#399de5"] ;
379 -> 383 ;
384 [label="gini = 0.0\nsamples = 2\nvalue = [2, 0]\nclass = 0", fillcolor="#e58139"] ;
378 -> 384 ;
385 [label="edad <= 30.5\ngini = 0.165\nsamples = 11\nvalue = [10, 1]\nclass = 0", fillcolor="#e88e4d"] ;
377 -> 385 ;
386 [label="gini = 0.0\nsamples = 10\nvalue = [10, 0]\nclass = 0", fillcolor="#e58139"] ;
385 -> 386 ;
387 [label="gini = 0.0\nsamples = 1\nvalue = [0, 1]\nclass = 1", fillcolor="#399de5"] ;
385 -> 387 ;
388 [label="precio_billete <= 17.6\ngini = 0.444\nsamples = 24\nvalue = [8, 16]\nclass = 1", fillcolor="#9ccef2"] ;
366 -> 388 ;
389 [label="n_hermanos_esposos <= 0.5\ngini = 0.231\nsamples = 15\nvalue = [2, 13]\nclass = 1", fillcolor="#57ace9"] ;
388 -> 389 ;
390 [label="gini = 0.0\nsamples = 6\nvalue = [0, 6]\nclass = 1", fillcolor="#399de5"] ;
389 -> 390 ;
391 [label="edad <= 28.85\ngini = 0.346\nsamples = 9\nvalue = [2, 7]\nclass = 1", fillcolor="#72b9ec"] ;
389 -> 391 ;
392 [label="edad <= 25.0\ngini = 0.48\nsamples = 5\nvalue = [2, 3]\nclass = 1", fillcolor="#bddef6"] ;
391 -> 392 ;
393 [label="gini = 0.0\nsamples = 3\nvalue = [0, 3]\nclass = 1", fillcolor="#399de5"] ;
392 -> 393 ;
394 [label="gini = 0.0\nsamples = 2\nvalue = [2, 0]\nclass = 0", fillcolor="#e58139"] ;
392 -> 394 ;
395 [label="gini = 0.0\nsamples = 4\nvalue = [0, 4]\nclass = 1", fillcolor="#399de5"] ;
391 -> 395 ;
396 [label="precio_billete <= 19.125\ngini = 0.444\nsamples = 9\nvalue = [6, 3]\nclass = 0", fillcolor="#f2c09c"] ;
388 -> 396 ;
397 [label="gini = 0.0\nsamples = 3\nvalue = [3, 0]\nclass = 0", fillcolor="#e58139"] ;
396 -> 397 ;
398 [label="edad <= 30.0\ngini = 0.5\nsamples = 6\nvalue = [3, 3]\nclass = 0", fillcolor="#ffffff"] ;
396 -> 398 ;
399 [label="precio_billete <= 21.55\ngini = 0.375\nsamples = 4\nvalue = [3, 1]\nclass = 0", fillcolor="#eeab7b"] ;
398 -> 399 ;
400 [label="gini = 0.0\nsamples = 3\nvalue = [3, 0]\nclass = 0", fillcolor="#e58139"] ;
399 -> 400 ;
401 [label="gini = 0.0\nsamples = 1\nvalue = [0, 1]\nclass = 1", fillcolor="#399de5"] ;
399 -> 401 ;
402 [label="gini = 0.0\nsamples = 2\nvalue = [0, 2]\nclass = 1", fillcolor="#399de5"] ;
398 -> 402 ;
403 [label="edad <= 55.0\ngini = 0.245\nsamples = 7\nvalue = [6, 1]\nclass = 0", fillcolor="#e9965a"] ;
327 -> 403 ;
404 [label="gini = 0.0\nsamples = 6\nvalue = [6, 0]\nclass = 0", fillcolor="#e58139"] ;
403 -> 404 ;
405 [label="gini = 0.0\nsamples = 1\nvalue = [0, 1]\nclass = 1", fillcolor="#399de5"] ;
403 -> 405 ;
406 [label="n_hijos_padres <= 0.5\ngini = 0.198\nsamples = 27\nvalue = [24, 3]\nclass = 0", fillcolor="#e89152"] ;
326 -> 406 ;
407 [label="gini = 0.0\nsamples = 1\nvalue = [0, 1]\nclass = 1", fillcolor="#399de5"] ;
406 -> 407 ;
408 [label="edad <= 5.5\ngini = 0.142\nsamples = 26\nvalue = [24, 2]\nclass = 0", fillcolor="#e78c49"] ;
406 -> 408 ;
409 [label="precio_billete <= 31.331\ngini = 0.444\nsamples = 3\nvalue = [2, 1]\nclass = 0", fillcolor="#f2c09c"] ;
408 -> 409 ;
410 [label="gini = 0.0\nsamples = 2\nvalue = [2, 0]\nclass = 0", fillcolor="#e58139"] ;
409 -> 410 ;
411 [label="gini = 0.0\nsamples = 1\nvalue = [0, 1]\nclass = 1", fillcolor="#399de5"] ;
409 -> 411 ;
412 [label="n_hijos_padres <= 4.5\ngini = 0.083\nsamples = 23\nvalue = [22, 1]\nclass = 0", fillcolor="#e68742"] ;
408 -> 412 ;
413 [label="gini = 0.0\nsamples = 18\nvalue = [18, 0]\nclass = 0", fillcolor="#e58139"] ;
412 -> 413 ;
414 [label="edad <= 38.5\ngini = 0.32\nsamples = 5\nvalue = [4, 1]\nclass = 0", fillcolor="#eca06a"] ;
412 -> 414 ;
415 [label="gini = 0.0\nsamples = 1\nvalue = [0, 1]\nclass = 1", fillcolor="#399de5"] ;
414 -> 415 ;
416 [label="gini = 0.0\nsamples = 4\nvalue = [4, 0]\nclass = 0", fillcolor="#e58139"] ;
414 -> 416 ;
}